digraph Tree {
node [shape=box, style="filled, rounded", color="black", fontname=helvetica] ;
edge [fontname=helvetica] ;
0 [label=<X<SUB>1</SUB> &le; 137.5<br/>gini = 0.454<br/>samples = 614<br/>value = [400, 214]>, fillcolor="#f3c4a3"] ;
1 [label=<X<SUB>3</SUB> &le; 95.5<br/>gini = 0.334<br/>samples = 443<br/>value = [349, 94]>, fillcolor="#eca36e"] ;
0 -> 1 [labeldistance=2.5, labelangle=45, headlabel="True"] ;
2 [label=<X<SUB>3</SUB> &le; 89.521<br/>gini = 0.076<br/>samples = 278<br/>value = [267, 11]>, fillcolor="#e68641"] ;
1 -> 2 ;
3 [label=<X<SUB>2</SUB> &le; 29.5<br/>gini = 0.066<br/>samples = 264<br/>value = [255, 9]>, fillcolor="#e68540"] ;
2 -> 3 ;
4 [label=<X<SUB>2</SUB> &le; 22.5<br/>gini = 0.029<br/>samples = 202<br/>value = [199, 3]>, fillcolor="#e5833c"] ;
3 -> 4 ;
5 [label=<X<SUB>5</SUB> &le; 23.5<br/>gini = 0.012<br/>samples = 159<br/>value = [158, 1]>, fillcolor="#e5823a"] ;
4 -> 5 ;
6 [label=<X<SUB>2</SUB> &le; 14.5<br/>gini = 0.045<br/>samples = 43<br/>value = [42, 1]>, fillcolor="#e6843e"] ;
5 -> 6 ;
7 [label=<gini = 0.219<br/>samples = 8<br/>value = [7, 1]>, fillcolor="#e99355"] ;
6 -> 7 ;
8 [label=<gini = 0.0<br/>samples = 35<br/>value = [35, 0]>, fillcolor="#e58139"] ;
6 -> 8 ;
9 [label=<gini = 0.0<br/>samples = 116<br/>value = [116, 0]>, fillcolor="#e58139"] ;
5 -> 9 ;
10 [label=<X<SUB>1</SUB> &le; 94.5<br/>gini = 0.089<br/>samples = 43<br/>value = [41, 2]>, fillcolor="#e68743"] ;
4 -> 10 ;
11 [label=<gini = 0.0<br/>samples = 20<br/>value = [20, 0]>, fillcolor="#e58139"] ;
10 -> 11 ;
12 [label=<X<SUB>3</SUB> &le; 88.0<br/>gini = 0.159<br/>samples = 23<br/>value = [21, 2]>, fillcolor="#e78d4c"] ;
10 -> 12 ;
13 [label=<gini = 0.375<br/>samples = 8<br/>value = [6, 2]>, fillcolor="#eeab7b"] ;
12 -> 13 ;
14 [label=<gini = 0.0<br/>samples = 15<br/>value = [15, 0]>, fillcolor="#e58139"] ;
12 -> 14 ;
15 [label=<X<SUB>3</SUB> &le; 88.521<br/>gini = 0.175<br/>samples = 62<br/>value = [56, 6]>, fillcolor="#e88e4e"] ;
3 -> 15 ;
16 [label=<X<SUB>2</SUB> &le; 41.5<br/>gini = 0.284<br/>samples = 35<br/>value = [29, 6]>, fillcolor="#ea9b62"] ;
15 -> 16 ;
17 [label=<X<SUB>5</SUB> &le; 24.5<br/>gini = 0.346<br/>samples = 27<br/>value = [21, 6]>, fillcolor="#eca572"] ;
16 -> 17 ;
18 [label=<gini = 0.165<br/>samples = 11<br/>value = [10, 1]>, fillcolor="#e88e4d"] ;
17 -> 18 ;
19 [label=<X<SUB>4</SUB> &le; 34.25<br/>gini = 0.43<br/>samples = 16<br/>value = [11, 5]>, fillcolor="#f1ba93"] ;
17 -> 19 ;
20 [label=<gini = 0.469<br/>samples = 8<br/>value = [5, 3]>, fillcolor="#f5cdb0"] ;
19 -> 20 ;
21 [label=<gini = 0.375<br/>samples = 8<br/>value = [6, 2]>, fillcolor="#eeab7b"] ;
19 -> 21 ;
22 [label=<gini = 0.0<br/>samples = 8<br/>value = [8, 0]>, fillcolor="#e58139"] ;
16 -> 22 ;
23 [label=<gini = 0.0<br/>samples = 27<br/>value = [27, 0]>, fillcolor="#e58139"] ;
15 -> 23 ;
24 [label=<gini = 0.245<br/>samples = 14<br/>value = [12, 2]>, fillcolor="#e9965a"] ;
2 -> 24 ;
25 [label=<X<SUB>4</SUB> &le; 26.3<br/>gini = 0.5<br/>samples = 165<br/>value = [82, 83]>, fillcolor="#fdfeff"] ;
1 -> 25 ;
26 [label=<X<SUB>1</SUB> &le; 122.5<br/>gini = 0.091<br/>samples = 21<br/>value = [20, 1]>, fillcolor="#e68743"] ;
25 -> 26 ;
27 [label=<gini = 0.0<br/>samples = 13<br/>value = [13, 0]>, fillcolor="#e58139"] ;
26 -> 27 ;
28 [label=<gini = 0.219<br/>samples = 8<br/>value = [7, 1]>, fillcolor="#e99355"] ;
26 -> 28 ;
29 [label=<X<SUB>5</SUB> &le; 28.5<br/>gini = 0.49<br/>samples = 144<br/>value = [62, 82]>, fillcolor="#cfe7f9"] ;
25 -> 29 ;
30 [label=<X<SUB>0</SUB> &le; 3.5<br/>gini = 0.419<br/>samples = 67<br/>value = [47, 20]>, fillcolor="#f0b78d"] ;
29 -> 30 ;
31 [label=<X<SUB>4</SUB> &le; 41.9<br/>gini = 0.346<br/>samples = 54<br/>value = [42, 12]>, fillcolor="#eca572"] ;
30 -> 31 ;
32 [label=<X<SUB>0</SUB> &le; 2.5<br/>gini = 0.263<br/>samples = 45<br/>value = [38, 7]>, fillcolor="#ea985d"] ;
31 -> 32 ;
33 [label=<X<SUB>2</SUB> &le; 33.0<br/>gini = 0.193<br/>samples = 37<br/>value = [33, 4]>, fillcolor="#e89051"] ;
32 -> 33 ;
34 [label=<gini = 0.0<br/>samples = 22<br/>value = [22, 0]>, fillcolor="#e58139"] ;
33 -> 34 ;
35 [label=<gini = 0.391<br/>samples = 15<br/>value = [11, 4]>, fillcolor="#eeaf81"] ;
33 -> 35 ;
36 [label=<gini = 0.469<br/>samples = 8<br/>value = [5, 3]>, fillcolor="#f5cdb0"] ;
32 -> 36 ;
37 [label=<gini = 0.494<br/>samples = 9<br/>value = [4, 5]>, fillcolor="#d7ebfa"] ;
31 -> 37 ;
38 [label=<gini = 0.473<br/>samples = 13<br/>value = [5, 8]>, fillcolor="#b5daf5"] ;
30 -> 38 ;
39 [label=<X<SUB>2</SUB> &le; 27.5<br/>gini = 0.314<br/>samples = 77<br/>value = [15, 62]>, fillcolor="#69b5eb"] ;
29 -> 39 ;
40 [label=<X<SUB>2</SUB> &le; 21.0<br/>gini = 0.149<br/>samples = 37<br/>value = [3, 34]>, fillcolor="#4aa6e7"] ;
39 -> 40 ;
41 [label=<gini = 0.469<br/>samples = 8<br/>value = [3, 5]>, fillcolor="#b0d8f5"] ;
40 -> 41 ;
42 [label=<gini = 0.0<br/>samples = 29<br/>value = [0, 29]>, fillcolor="#399de5"] ;
40 -> 42 ;
43 [label=<X<SUB>0</SUB> &le; 8.5<br/>gini = 0.42<br/>samples = 40<br/>value = [12, 28]>, fillcolor="#8ec7f0"] ;
39 -> 43 ;
44 [label=<X<SUB>3</SUB> &le; 135.649<br/>gini = 0.471<br/>samples = 29<br/>value = [11, 18]>, fillcolor="#b2d9f5"] ;
43 -> 44 ;
45 [label=<gini = 0.346<br/>samples = 9<br/>value = [7, 2]>, fillcolor="#eca572"] ;
44 -> 45 ;
46 [label=<X<SUB>5</SUB> &le; 40.5<br/>gini = 0.32<br/>samples = 20<br/>value = [4, 16]>, fillcolor="#6ab6ec"] ;
44 -> 46 ;
47 [label=<gini = 0.0<br/>samples = 10<br/>value = [0, 10]>, fillcolor="#399de5"] ;
46 -> 47 ;
48 [label=<gini = 0.48<br/>samples = 10<br/>value = [4, 6]>, fillcolor="#bddef6"] ;
46 -> 48 ;
49 [label=<gini = 0.165<br/>samples = 11<br/>value = [1, 10]>, fillcolor="#4da7e8"] ;
43 -> 49 ;
50 [label=<X<SUB>1</SUB> &le; 154.5<br/>gini = 0.419<br/>samples = 171<br/>value = [51, 120]>, fillcolor="#8dc7f0"] ;
0 -> 50 [labeldistance=2.5, labelangle=-45, headlabel="False"] ;
51 [label=<X<SUB>1</SUB> &le; 152.5<br/>gini = 0.5<br/>samples = 70<br/>value = [34, 36]>, fillcolor="#f4fafe"] ;
50 -> 51 ;
52 [label=<X<SUB>3</SUB> &le; 94.688<br/>gini = 0.492<br/>samples = 62<br/>value = [27, 35]>, fillcolor="#d2e9f9"] ;
51 -> 52 ;
53 [label=<X<SUB>5</SUB> &le; 28.5<br/>gini = 0.117<br/>samples = 16<br/>value = [15, 1]>, fillcolor="#e78946"] ;
52 -> 53 ;
54 [label=<gini = 0.0<br/>samples = 8<br/>value = [8, 0]>, fillcolor="#e58139"] ;
53 -> 54 ;
55 [label=<gini = 0.219<br/>samples = 8<br/>value = [7, 1]>, fillcolor="#e99355"] ;
53 -> 55 ;
56 [label=<X<SUB>4</SUB> &le; 29.05<br/>gini = 0.386<br/>samples = 46<br/>value = [12, 34]>, fillcolor="#7fc0ee"] ;
52 -> 56 ;
57 [label=<gini = 0.469<br/>samples = 8<br/>value = [5, 3]>, fillcolor="#f5cdb0"] ;
56 -> 57 ;
58 [label=<X<SUB>4</SUB> &le; 33.3<br/>gini = 0.301<br/>samples = 38<br/>value = [7, 31]>, fillcolor="#66b3eb"] ;
56 -> 58 ;
59 [label=<gini = 0.153<br/>samples = 12<br/>value = [1, 11]>, fillcolor="#4ba6e7"] ;
58 -> 59 ;
60 [label=<X<SUB>5</SUB> &le; 30.5<br/>gini = 0.355<br/>samples = 26<br/>value = [6, 20]>, fillcolor="#74baed"] ;
58 -> 60 ;
61 [label=<gini = 0.496<br/>samples = 11<br/>value = [5, 6]>, fillcolor="#deeffb"] ;
60 -> 61 ;
62 [label=<gini = 0.124<br/>samples = 15<br/>value = [1, 14]>, fillcolor="#47a4e7"] ;
60 -> 62 ;
63 [label=<gini = 0.219<br/>samples = 8<br/>value = [7, 1]>, fillcolor="#e99355"] ;
51 -> 63 ;
64 [label=<X<SUB>3</SUB> &le; 89.521<br/>gini = 0.28<br/>samples = 101<br/>value = [17, 84]>, fillcolor="#61b1ea"] ;
50 -> 64 ;
65 [label=<gini = 0.18<br/>samples = 10<br/>value = [9, 1]>, fillcolor="#e88f4f"] ;
64 -> 65 ;
66 [label=<X<SUB>0</SUB> &le; 4.433<br/>gini = 0.16<br/>samples = 91<br/>value = [8, 83]>, fillcolor="#4ca6e8"] ;
64 -> 66 ;
67 [label=<X<SUB>5</SUB> &le; 34.5<br/>gini = 0.273<br/>samples = 43<br/>value = [7, 36]>, fillcolor="#5fb0ea"] ;
66 -> 67 ;
68 [label=<X<SUB>4</SUB> &le; 32.25<br/>gini = 0.366<br/>samples = 29<br/>value = [7, 22]>, fillcolor="#78bced"] ;
67 -> 68 ;
69 [label=<gini = 0.444<br/>samples = 9<br/>value = [3, 6]>, fillcolor="#9ccef2"] ;
68 -> 69 ;
70 [label=<X<SUB>4</SUB> &le; 39.2<br/>gini = 0.32<br/>samples = 20<br/>value = [4, 16]>, fillcolor="#6ab6ec"] ;
68 -> 70 ;
71 [label=<gini = 0.18<br/>samples = 10<br/>value = [1, 9]>, fillcolor="#4fa8e8"] ;
70 -> 71 ;
72 [label=<gini = 0.42<br/>samples = 10<br/>value = [3, 7]>, fillcolor="#8ec7f0"] ;
70 -> 72 ;
73 [label=<gini = 0.0<br/>samples = 14<br/>value = [0, 14]>, fillcolor="#399de5"] ;
67 -> 73 ;
74 [label=<X<SUB>1</SUB> &le; 165.5<br/>gini = 0.041<br/>samples = 48<br/>value = [1, 47]>, fillcolor="#3d9fe6"] ;
66 -> 74 ;
75 [label=<X<SUB>3</SUB> &le; 123.0<br/>gini = 0.111<br/>samples = 17<br/>value = [1, 16]>, fillcolor="#45a3e7"] ;
74 -> 75 ;
76 [label=<gini = 0.0<br/>samples = 9<br/>value = [0, 9]>, fillcolor="#399de5"] ;
75 -> 76 ;
77 [label=<gini = 0.219<br/>samples = 8<br/>value = [1, 7]>, fillcolor="#55abe9"] ;
75 -> 77 ;
78 [label=<gini = 0.0<br/>samples = 31<br/>value = [0, 31]>, fillcolor="#399de5"] ;
74 -> 78 ;
}